digraph Tree {
node [shape=box] ;
0 [label="average_weight <= 1.0102\ngini = 0.221\nsamples = 33423\nvalue = [29194, 4229]"] ;
1 [label="gini = 0.0059\nsamples = 19914\nvalue = [19855, 59]"] ;
0 -> 1 [labeldistance=2.5, labelangle=45, headlabel="True"] ;
2 [label="average_weight <= 2.0008\ngini = 0.4268\nsamples = 13509\nvalue = [9339, 4170]"] ;
0 -> 2 [labeldistance=2.5, labelangle=-45, headlabel="False"] ;
3 [label="average_weight <= 1.998\ngini = 0.3732\nsamples = 7269\nvalue = [5465, 1804]"] ;
2 -> 3 ;
4 [label="average_weight <= 1.8576\ngini = 0.4721\nsamples = 4497\nvalue = [2780, 1717]"] ;
3 -> 4 ;
5 [label="average_weight <= 1.1248\ngini = 0.4565\nsamples = 4169\nvalue = [2699, 1470]"] ;
4 -> 5 ;
6 [label="average_weight <= 1.0616\ngini = 0.3971\nsamples = 216\nvalue = [59, 157]"] ;
5 -> 6 ;
7 [label="gini = 0.1264\nsamples = 59\nvalue = [4, 55]"] ;
6 -> 7 ;
8 [label="average_weight <= 1.1115\ngini = 0.4552\nsamples = 157\nvalue = [55, 102]"] ;
6 -> 8 ;
9 [label="average_weight <= 1.1101\ngini = 0.4817\nsamples = 136\nvalue = [55, 81]"] ;
8 -> 9 ;
10 [label="average_weight <= 1.1013\ngini = 0.462\nsamples = 116\nvalue = [42, 74]"] ;
9 -> 10 ;
11 [label="average_weight <= 1.0986\ngini = 0.4792\nsamples = 103\nvalue = [41, 62]"] ;
10 -> 11 ;
12 [label="gini = 0.4628\nsamples = 88\nvalue = [32, 56]"] ;
11 -> 12 ;
13 [label="gini = 0.48\nsamples = 15\nvalue = [9, 6]"] ;
11 -> 13 ;
14 [label="gini = 0.142\nsamples = 13\nvalue = [1, 12]"] ;
10 -> 14 ;
15 [label="gini = 0.455\nsamples = 20\nvalue = [13, 7]"] ;
9 -> 15 ;
16 [label="gini = 0.0\nsamples = 21\nvalue = [0, 21]"] ;
8 -> 16 ;
17 [label="average_weight <= 1.5009\ngini = 0.4437\nsamples = 3953\nvalue = [2640, 1313]"] ;
5 -> 17 ;
18 [label="average_weight <= 1.4988\ngini = 0.41\nsamples = 2459\nvalue = [1751, 708]"] ;
17 -> 18 ;
19 [label="average_weight <= 1.3339\ngini = 0.4784\nsamples = 1682\nvalue = [1016, 666]"] ;
18 -> 19 ;
20 [label="average_weight <= 1.3295\ngini = 0.442\nsamples = 1204\nvalue = [807, 397]"] ;
19 -> 20 ;
21 [label="average_weight <= 1.2511\ngini = 0.4881\nsamples = 880\nvalue = [508, 372]"] ;
20 -> 21 ;
22 [label="average_weight <= 1.2478\ngini = 0.4582\nsamples = 681\nvalue = [439, 242]"] ;
21 -> 22 ;
23 [label="average_weight <= 1.2003\ngini = 0.4871\nsamples = 536\nvalue = [311, 225]"] ;
22 -> 23 ;
24 [label="average_weight <= 1.199\ngini = 0.4423\nsamples = 421\nvalue = [282, 139]"] ;
23 -> 24 ;
25 [label="average_weight <= 1.1671\ngini = 0.4838\nsamples = 300\nvalue = [177, 123]"] ;
24 -> 25 ;
26 [label="average_weight <= 1.1658\ngini = 0.4471\nsamples = 246\nvalue = [163, 83]"] ;
25 -> 26 ;
27 [label="average_weight <= 1.1434\ngini = 0.4827\nsamples = 172\nvalue = [102, 70]"] ;
26 -> 27 ;
28 [label="average_weight <= 1.142\ngini = 0.4194\nsamples = 127\nvalue = [89, 38]"] ;
27 -> 28 ;
29 [label="gini = 0.48\nsamples = 65\nvalue = [39, 26]"] ;
28 -> 29 ;
30 [label="gini = 0.3122\nsamples = 62\nvalue = [50, 12]"] ;
28 -> 30 ;
31 [label="gini = 0.4109\nsamples = 45\nvalue = [13, 32]"] ;
27 -> 31 ;
32 [label="gini = 0.2896\nsamples = 74\nvalue = [61, 13]"] ;
26 -> 32 ;
33 [label="gini = 0.3841\nsamples = 54\nvalue = [14, 40]"] ;
25 -> 33 ;
34 [label="gini = 0.2295\nsamples = 121\nvalue = [105, 16]"] ;
24 -> 34 ;
35 [label="average_weight <= 1.2311\ngini = 0.3772\nsamples = 115\nvalue = [29, 86]"] ;
23 -> 35 ;
36 [label="gini = 0.4365\nsamples = 87\nvalue = [28, 59]"] ;
35 -> 36 ;
37 [label="gini = 0.0689\nsamples = 28\nvalue = [1, 27]"] ;
35 -> 37 ;
38 [label="gini = 0.207\nsamples = 145\nvalue = [128, 17]"] ;
22 -> 38 ;
39 [label="average_weight <= 1.3084\ngini = 0.453\nsamples = 199\nvalue = [69, 130]"] ;
21 -> 39 ;
40 [label="average_weight <= 1.2845\ngini = 0.478\nsamples = 167\nvalue = [66, 101]"] ;
39 -> 40 ;
41 [label="gini = 0.3047\nsamples = 64\nvalue = [12, 52]"] ;
40 -> 41 ;
42 [label="average_weight <= 1.2864\ngini = 0.4988\nsamples = 103\nvalue = [54, 49]"] ;
40 -> 42 ;
43 [label="gini = 0.4055\nsamples = 46\nvalue = [33, 13]"] ;
42 -> 43 ;
44 [label="gini = 0.4654\nsamples = 57\nvalue = [21, 36]"] ;
42 -> 44 ;
45 [label="gini = 0.1699\nsamples = 32\nvalue = [3, 29]"] ;
39 -> 45 ;
46 [label="gini = 0.1424\nsamples = 324\nvalue = [299, 25]"] ;
20 -> 46 ;
47 [label="average_weight <= 1.3987\ngini = 0.4921\nsamples = 478\nvalue = [209, 269]"] ;
19 -> 47 ;
48 [label="average_weight <= 1.3853\ngini = 0.409\nsamples = 143\nvalue = [41, 102]"] ;
47 -> 48 ;
49 [label="average_weight <= 1.3742\ngini = 0.4407\nsamples = 122\nvalue = [40, 82]"] ;
48 -> 49 ;
50 [label="gini = 0.3573\nsamples = 73\nvalue = [17, 56]"] ;
49 -> 50 ;
51 [label="gini = 0.4981\nsamples = 49\nvalue = [23, 26]"] ;
49 -> 51 ;
52 [label="gini = 0.0907\nsamples = 21\nvalue = [1, 20]"] ;
48 -> 52 ;
53 [label="average_weight <= 1.4009\ngini = 0.5\nsamples = 335\nvalue = [168, 167]"] ;
47 -> 53 ;
54 [label="gini = 0.2253\nsamples = 85\nvalue = [74, 11]"] ;
53 -> 54 ;
55 [label="average_weight <= 1.4165\ngini = 0.4692\nsamples = 250\nvalue = [94, 156]"] ;
53 -> 55 ;
56 [label="gini = 0.1284\nsamples = 29\nvalue = [2, 27]"] ;
55 -> 56 ;
57 [label="average_weight <= 1.4742\ngini = 0.486\nsamples = 221\nvalue = [92, 129]"] ;
55 -> 57 ;
58 [label="average_weight <= 1.4176\ngini = 0.4971\nsamples = 197\nvalue = [91, 106]"] ;
57 -> 58 ;
59 [label="gini = 0.375\nsamples = 20\nvalue = [15, 5]"] ;
58 -> 59 ;
60 [label="average_weight <= 1.4276\ngini = 0.49\nsamples = 177\nvalue = [76, 101]"] ;
58 -> 60 ;
61 [label="gini = 0.0907\nsamples = 21\nvalue = [1, 20]"] ;
60 -> 61 ;
62 [label="average_weight <= 1.43\ngini = 0.4993\nsamples = 156\nvalue = [75, 81]"] ;
60 -> 62 ;
63 [label="gini = 0.355\nsamples = 39\nvalue = [30, 9]"] ;
62 -> 63 ;
64 [label="average_weight <= 1.4372\ngini = 0.4734\nsamples = 117\nvalue = [45, 72]"] ;
62 -> 64 ;
65 [label="gini = 0.1528\nsamples = 12\nvalue = [1, 11]"] ;
64 -> 65 ;
66 [label="average_weight <= 1.4659\ngini = 0.4869\nsamples = 105\nvalue = [44, 61]"] ;
64 -> 66 ;
67 [label="gini = 0.4734\nsamples = 91\nvalue = [35, 56]"] ;
66 -> 67 ;
68 [label="gini = 0.4592\nsamples = 14\nvalue = [9, 5]"] ;
66 -> 68 ;
69 [label="gini = 0.0799\nsamples = 24\nvalue = [1, 23]"] ;
57 -> 69 ;
70 [label="gini = 0.1023\nsamples = 777\nvalue = [735, 42]"] ;
18 -> 70 ;
71 [label="average_weight <= 1.5552\ngini = 0.4819\nsamples = 1494\nvalue = [889, 605]"] ;
17 -> 71 ;
72 [label="gini = 0.2383\nsamples = 94\nvalue = [13, 81]"] ;
71 -> 72 ;
73 [label="average_weight <= 1.6687\ngini = 0.4684\nsamples = 1400\nvalue = [876, 524]"] ;
71 -> 73 ;
74 [label="average_weight <= 1.6647\ngini = 0.4185\nsamples = 681\nvalue = [478, 203]"] ;
73 -> 74 ;
75 [label="average_weight <= 1.6012\ngini = 0.4989\nsamples = 384\nvalue = [201, 183]"] ;
74 -> 75 ;
76 [label="average_weight <= 1.5981\ngini = 0.4501\nsamples = 231\nvalue = [152, 79]"] ;
75 -> 76 ;
77 [label="average_weight <= 1.5736\ngini = 0.5\nsamples = 128\nvalue = [64, 64]"] ;
76 -> 77 ;
78 [label="gini = 0.4521\nsamples = 84\nvalue = [55, 29]"] ;
77 -> 78 ;
79 [label="gini = 0.3254\nsamples = 44\nvalue = [9, 35]"] ;
77 -> 79 ;
80 [label="gini = 0.2488\nsamples = 103\nvalue = [88, 15]"] ;
76 -> 80 ;
81 [label="average_weight <= 1.6373\ngini = 0.4354\nsamples = 153\nvalue = [49, 104]"] ;
75 -> 81 ;
82 [label="gini = 0.491\nsamples = 97\nvalue = [42, 55]"] ;
81 -> 82 ;
83 [label="gini = 0.2188\nsamples = 56\nvalue = [7, 49]"] ;
81 -> 83 ;
84 [label="gini = 0.1256\nsamples = 297\nvalue = [277, 20]"] ;
74 -> 84 ;
85 [label="average_weight <= 1.7492\ngini = 0.4943\nsamples = 719\nvalue = [398, 321]"] ;
73 -> 85 ;
86 [label="average_weight <= 1.6918\ngini = 0.4531\nsamples = 173\nvalue = [60, 113]"] ;
85 -> 86 ;
87 [label="gini = 0.1699\nsamples = 32\nvalue = [3, 29]"] ;
86 -> 87 ;
88 [label="average_weight <= 1.7276\ngini = 0.4817\nsamples = 141\nvalue = [57, 84]"] ;
86 -> 88 ;
89 [label="average_weight <= 1.7129\ngini = 0.499\nsamples = 113\nvalue = [54, 59]"] ;
88 -> 89 ;
90 [label="gini = 0.455\nsamples = 40\nvalue = [14, 26]"] ;
89 -> 90 ;
91 [label="gini = 0.4954\nsamples = 73\nvalue = [40, 33]"] ;
89 -> 91 ;
92 [label="gini = 0.1913\nsamples = 28\nvalue = [3, 25]"] ;
88 -> 92 ;
93 [label="average_weight <= 1.7521\ngini = 0.4717\nsamples = 546\nvalue = [338, 208]"] ;
85 -> 93 ;
94 [label="gini = 0.2364\nsamples = 146\nvalue = [126, 20]"] ;
93 -> 94 ;
95 [label="average_weight <= 1.7996\ngini = 0.4982\nsamples = 400\nvalue = [212, 188]"] ;
93 -> 95 ;
96 [label="average_weight <= 1.7686\ngini = 0.3676\nsamples = 103\nvalue = [25, 78]"] ;
95 -> 96 ;
97 [label="gini = 0.074\nsamples = 26\nvalue = [1, 25]"] ;
96 -> 97 ;
98 [label="gini = 0.4291\nsamples = 77\nvalue = [24, 53]"] ;
96 -> 98 ;
99 [label="average_weight <= 1.8017\ngini = 0.4664\nsamples = 297\nvalue = [187, 110]"] ;
95 -> 99 ;
100 [label="gini = 0.229\nsamples = 91\nvalue = [79, 12]"] ;
99 -> 100 ;
101 [label="average_weight <= 1.8563\ngini = 0.4988\nsamples = 206\nvalue = [108, 98]"] ;
99 -> 101 ;
102 [label="average_weight <= 1.8345\ngini = 0.4951\nsamples = 171\nvalue = [77, 94]"] ;
101 -> 102 ;
103 [label="average_weight <= 1.8324\ngini = 0.4985\nsamples = 127\nvalue = [67, 60]"] ;
102 -> 103 ;
104 [label="gini = 0.4352\nsamples = 75\nvalue = [24, 51]"] ;
103 -> 104 ;
105 [label="gini = 0.2862\nsamples = 52\nvalue = [43, 9]"] ;
103 -> 105 ;
106 [label="gini = 0.3512\nsamples = 44\nvalue = [10, 34]"] ;
102 -> 106 ;
107 [label="gini = 0.2024\nsamples = 35\nvalue = [31, 4]"] ;
101 -> 107 ;
108 [label="average_weight <= 1.9344\ngini = 0.3719\nsamples = 328\nvalue = [81, 247]"] ;
4 -> 108 ;
109 [label="average_weight <= 1.8741\ngini = 0.4403\nsamples = 220\nvalue = [72, 148]"] ;
108 -> 109 ;
110 [label="gini = 0.0644\nsamples = 30\nvalue = [1, 29]"] ;
109 -> 110 ;
111 [label="average_weight <= 1.8761\ngini = 0.4681\nsamples = 190\nvalue = [71, 119]"] ;
109 -> 111 ;
112 [label="gini = 0.4339\nsamples = 22\nvalue = [15, 7]"] ;
111 -> 112 ;
113 [label="average_weight <= 1.8851\ngini = 0.4444\nsamples = 168\nvalue = [56, 112]"] ;
111 -> 113 ;
114 [label="gini = 0.1528\nsamples = 12\nvalue = [1, 11]"] ;
113 -> 114 ;
115 [label="average_weight <= 1.8892\ngini = 0.4565\nsamples = 156\nvalue = [55, 101]"] ;
113 -> 115 ;
116 [label="gini = 0.4946\nsamples = 29\nvalue = [16, 13]"] ;
115 -> 116 ;
117 [label="average_weight <= 1.8987\ngini = 0.4256\nsamples = 127\nvalue = [39, 88]"] ;
115 -> 117 ;
118 [label="gini = 0.1172\nsamples = 16\nvalue = [1, 15]"] ;
117 -> 118 ;
119 [label="average_weight <= 1.9089\ngini = 0.4503\nsamples = 111\nvalue = [38, 73]"] ;
117 -> 119 ;
120 [label="gini = 0.382\nsamples = 35\nvalue = [9, 26]"] ;
119 -> 120 ;
121 [label="gini = 0.472\nsamples = 76\nvalue = [29, 47]"] ;
119 -> 121 ;
122 [label="average_weight <= 1.9548\ngini = 0.1528\nsamples = 108\nvalue = [9, 99]"] ;
108 -> 122 ;
123 [label="gini = 0.2585\nsamples = 59\nvalue = [9, 50]"] ;
122 -> 123 ;
124 [label="gini = 0.0\nsamples = 49\nvalue = [0, 49]"] ;
122 -> 124 ;
125 [label="gini = 0.0608\nsamples = 2772\nvalue = [2685, 87]"] ;
3 -> 125 ;
126 [label="average_weight <= 2.9978\ngini = 0.4708\nsamples = 6240\nvalue = [3874, 2366]"] ;
2 -> 126 ;
127 [label="average_weight <= 2.1995\ngini = 0.4976\nsamples = 3350\nvalue = [1792, 1558]"] ;
126 -> 127 ;
128 [label="average_weight <= 2.0392\ngini = 0.4408\nsamples = 497\nvalue = [163, 334]"] ;
127 -> 128 ;
129 [label="gini = 0.0425\nsamples = 46\nvalue = [1, 45]"] ;
128 -> 129 ;
130 [label="average_weight <= 2.1669\ngini = 0.4604\nsamples = 451\nvalue = [162, 289]"] ;
128 -> 130 ;
131 [label="average_weight <= 2.1658\ngini = 0.4747\nsamples = 387\nvalue = [150, 237]"] ;
130 -> 131 ;
132 [label="average_weight <= 2.1442\ngini = 0.4513\nsamples = 346\nvalue = [119, 227]"] ;
131 -> 132 ;
133 [label="average_weight <= 2.1416\ngini = 0.4708\nsamples = 298\nvalue = [113, 185]"] ;
132 -> 133 ;
134 [label="average_weight <= 2.0899\ngini = 0.4356\nsamples = 262\nvalue = [84, 178]"] ;
133 -> 134 ;
135 [label="average_weight <= 2.0835\ngini = 0.3863\nsamples = 130\nvalue = [34, 96]"] ;
134 -> 135 ;
136 [label="average_weight <= 2.0828\ngini = 0.4082\nsamples = 119\nvalue = [34, 85]"] ;
135 -> 136 ;
137 [label="average_weight <= 2.0718\ngini = 0.3773\nsamples = 107\nvalue = [27, 80]"] ;
136 -> 137 ;
138 [label="gini = 0.4053\nsamples = 85\nvalue = [24, 61]"] ;
137 -> 138 ;
139 [label="gini = 0.2355\nsamples = 22\nvalue = [3, 19]"] ;
137 -> 139 ;
140 [label="gini = 0.4861\nsamples = 12\nvalue = [7, 5]"] ;
136 -> 140 ;
141 [label="gini = 0.0\nsamples = 11\nvalue = [0, 11]"] ;
135 -> 141 ;
142 [label="average_weight <= 2.1255\ngini = 0.4706\nsamples = 132\nvalue = [50, 82]"] ;
134 -> 142 ;
143 [label="average_weight <= 2.0917\ngini = 0.4923\nsamples = 105\nvalue = [46, 59]"] ;
142 -> 143 ;
144 [label="gini = 0.4592\nsamples = 14\nvalue = [9, 5]"] ;
143 -> 144 ;
145 [label="gini = 0.4826\nsamples = 91\nvalue = [37, 54]"] ;
143 -> 145 ;
146 [label="gini = 0.2524\nsamples = 27\nvalue = [4, 23]"] ;
142 -> 146 ;
147 [label="gini = 0.3133\nsamples = 36\nvalue = [29, 7]"] ;
133 -> 147 ;
148 [label="gini = 0.2188\nsamples = 48\nvalue = [6, 42]"] ;
132 -> 148 ;
149 [label="gini = 0.3688\nsamples = 41\nvalue = [31, 10]"] ;
131 -> 149 ;
150 [label="gini = 0.3047\nsamples = 64\nvalue = [12, 52]"] ;
130 -> 150 ;
151 [label="average_weight <= 2.5025\ngini = 0.4899\nsamples = 2853\nvalue = [1629, 1224]"] ;
127 -> 151 ;
152 [label="average_weight <= 2.4996\ngini = 0.4444\nsamples = 1578\nvalue = [1052, 526]"] ;
151 -> 152 ;
153 [label="average_weight <= 2.3348\ngini = 0.4916\nsamples = 1149\nvalue = [649, 500]"] ;
152 -> 153 ;
154 [label="average_weight <= 2.3324\ngini = 0.4413\nsamples = 718\nvalue = [482, 236]"] ;
153 -> 154 ;
155 [label="average_weight <= 2.2863\ngini = 0.4919\nsamples = 504\nvalue = [284, 220]"] ;
154 -> 155 ;
156 [label="average_weight <= 2.2008\ngini = 0.461\nsamples = 408\nvalue = [261, 147]"] ;
155 -> 156 ;
157 [label="gini = 0.3102\nsamples = 99\nvalue = [80, 19]"] ;
156 -> 157 ;
158 [label="average_weight <= 2.2487\ngini = 0.4853\nsamples = 309\nvalue = [181, 128]"] ;
156 -> 158 ;
159 [label="gini = 0.4273\nsamples = 97\nvalue = [30, 67]"] ;
158 -> 159 ;
160 [label="average_weight <= 2.2512\ngini = 0.4099\nsamples = 212\nvalue = [151, 61]"] ;
158 -> 160 ;
161 [label="gini = 0.263\nsamples = 122\nvalue = [103, 19]"] ;
160 -> 161 ;
162 [label="gini = 0.4978\nsamples = 90\nvalue = [48, 42]"] ;
160 -> 162 ;
163 [label="gini = 0.3644\nsamples = 96\nvalue = [23, 73]"] ;
155 -> 163 ;
164 [label="gini = 0.1384\nsamples = 214\nvalue = [198, 16]"] ;
154 -> 164 ;
165 [label="average_weight <= 2.3633\ngini = 0.4747\nsamples = 431\nvalue = [167, 264]"] ;
153 -> 165 ;
166 [label="gini = 0.1769\nsamples = 51\nvalue = [5, 46]"] ;
165 -> 166 ;
167 [label="average_weight <= 2.445\ngini = 0.4891\nsamples = 380\nvalue = [162, 218]"] ;
165 -> 167 ;
168 [label="average_weight <= 2.3995\ngini = 0.4998\nsamples = 275\nvalue = [140, 135]"] ;
167 -> 168 ;
169 [label="gini = 0.4534\nsamples = 95\nvalue = [33, 62]"] ;
168 -> 169 ;
170 [label="average_weight <= 2.4012\ngini = 0.4822\nsamples = 180\nvalue = [107, 73]"] ;
168 -> 170 ;
171 [label="gini = 0.2717\nsamples = 74\nvalue = [62, 12]"] ;
170 -> 171 ;
172 [label="average_weight <= 2.4279\ngini = 0.4886\nsamples = 106\nvalue = [45, 61]"] ;
170 -> 172 ;
173 [label="gini = 0.2627\nsamples = 45\nvalue = [7, 38]"] ;
172 -> 173 ;
174 [label="gini = 0.4698\nsamples = 61\nvalue = [38, 23]"] ;
172 -> 174 ;
175 [label="average_weight <= 2.4669\ngini = 0.3312\nsamples = 105\nvalue = [22, 83]"] ;
167 -> 175 ;
176 [label="gini = 0.4251\nsamples = 62\nvalue = [19, 43]"] ;
175 -> 176 ;
177 [label="gini = 0.1298\nsamples = 43\nvalue = [3, 40]"] ;
175 -> 177 ;
178 [label="gini = 0.1139\nsamples = 429\nvalue = [403, 26]"] ;
152 -> 178 ;
179 [label="average_weight <= 2.8758\ngini = 0.4955\nsamples = 1275\nvalue = [577, 698]"] ;
151 -> 179 ;
180 [label="average_weight <= 2.664\ngini = 0.4996\nsamples = 1112\nvalue = [540, 572]"] ;
179 -> 180 ;
181 [label="average_weight <= 2.6365\ngini = 0.4724\nsamples = 400\nvalue = [153, 247]"] ;
180 -> 181 ;
182 [label="average_weight <= 2.5279\ngini = 0.4849\nsamples = 363\nvalue = [150, 213]"] ;
181 -> 182 ;
183 [label="gini = 0.1567\nsamples = 35\nvalue = [3, 32]"] ;
182 -> 183 ;
184 [label="average_weight <= 2.6026\ngini = 0.4946\nsamples = 328\nvalue = [147, 181]"] ;
182 -> 184 ;
185 [label="average_weight <= 2.5982\ngini = 0.4998\nsamples = 235\nvalue = [115, 120]"] ;
184 -> 185 ;
186 [label="average_weight <= 2.5841\ngini = 0.4791\nsamples = 176\nvalue = [70, 106]"] ;
185 -> 186 ;
187 [label="average_weight <= 2.5711\ngini = 0.4938\nsamples = 153\nvalue = [68, 85]"] ;
186 -> 187 ;
188 [label="gini = 0.4613\nsamples = 97\nvalue = [35, 62]"] ;
187 -> 188 ;
189 [label="gini = 0.4841\nsamples = 56\nvalue = [33, 23]"] ;
187 -> 189 ;
190 [label="gini = 0.1588\nsamples = 23\nvalue = [2, 21]"] ;
186 -> 190 ;
191 [label="gini = 0.362\nsamples = 59\nvalue = [45, 14]"] ;
185 -> 191 ;
192 [label="gini = 0.4514\nsamples = 93\nvalue = [32, 61]"] ;
184 -> 192 ;
193 [label="gini = 0.149\nsamples = 37\nvalue = [3, 34]"] ;
181 -> 193 ;
194 [label="average_weight <= 2.6678\ngini = 0.4962\nsamples = 712\nvalue = [387, 325]"] ;
180 -> 194 ;
195 [label="gini = 0.2305\nsamples = 158\nvalue = [137, 21]"] ;
194 -> 195 ;
196 [label="average_weight <= 2.7479\ngini = 0.4952\nsamples = 554\nvalue = [250, 304]"] ;
194 -> 196 ;
197 [label="average_weight <= 2.6866\ngini = 0.4217\nsamples = 182\nvalue = [55, 127]"] ;
196 -> 197 ;
198 [label="gini = 0.0713\nsamples = 27\nvalue = [1, 26]"] ;
197 -> 198 ;
199 [label="average_weight <= 2.715\ngini = 0.454\nsamples = 155\nvalue = [54, 101]"] ;
197 -> 199 ;
200 [label="average_weight <= 2.7134\ngini = 0.4941\nsamples = 101\nvalue = [45, 56]"] ;
199 -> 200 ;
201 [label="gini = 0.4175\nsamples = 64\nvalue = [19, 45]"] ;
200 -> 201 ;
202 [label="gini = 0.4178\nsamples = 37\nvalue = [26, 11]"] ;
200 -> 202 ;
203 [label="gini = 0.2778\nsamples = 54\nvalue = [9, 45]"] ;
199 -> 203 ;
204 [label="average_weight <= 2.7509\ngini = 0.4988\nsamples = 372\nvalue = [195, 177]"] ;
196 -> 204 ;
205 [label="gini = 0.2323\nsamples = 82\nvalue = [71, 11]"] ;
204 -> 205 ;
206 [label="average_weight <= 2.7994\ngini = 0.4895\nsamples = 290\nvalue = [124, 166]"] ;
204 -> 206 ;
207 [label="gini = 0.3084\nsamples = 84\nvalue = [16, 68]"] ;
206 -> 207 ;
208 [label="average_weight <= 2.8003\ngini = 0.4988\nsamples = 206\nvalue = [108, 98]"] ;
206 -> 208 ;
209 [label="gini = 0.2041\nsamples = 52\nvalue = [46, 6]"] ;
208 -> 209 ;
210 [label="average_weight <= 2.818\ngini = 0.481\nsamples = 154\nvalue = [62, 92]"] ;
208 -> 210 ;
211 [label="gini = 0.0\nsamples = 18\nvalue = [0, 18]"] ;
210 -> 211 ;
212 [label="average_weight <= 2.8338\ngini = 0.4961\nsamples = 136\nvalue = [62, 74]"] ;
210 -> 212 ;
213 [label="gini = 0.4905\nsamples = 58\nvalue = [33, 25]"] ;
212 -> 213 ;
214 [label="gini = 0.4671\nsamples = 78\nvalue = [29, 49]"] ;
212 -> 214 ;
215 [label="average_weight <= 2.9487\ngini = 0.3509\nsamples = 163\nvalue = [37, 126]"] ;
179 -> 215 ;
216 [label="average_weight <= 2.8987\ngini = 0.4024\nsamples = 129\nvalue = [36, 93]"] ;
215 -> 216 ;
217 [label="gini = 0.149\nsamples = 37\nvalue = [3, 34]"] ;
216 -> 217 ;
218 [label="gini = 0.4601\nsamples = 92\nvalue = [33, 59]"] ;
216 -> 218 ;
219 [label="gini = 0.0571\nsamples = 34\nvalue = [1, 33]"] ;
215 -> 219 ;
220 [label="average_weight <= 3.0015\ngini = 0.4028\nsamples = 2890\nvalue = [2082, 808]"] ;
126 -> 220 ;
221 [label="gini = 0.0723\nsamples = 1198\nvalue = [1153, 45]"] ;
220 -> 221 ;
222 [label="average_weight <= 3.9968\ngini = 0.4952\nsamples = 1692\nvalue = [929, 763]"] ;
220 -> 222 ;
223 [label="average_weight <= 3.1989\ngini = 0.4959\nsamples = 1234\nvalue = [561, 673]"] ;
222 -> 223 ;
224 [label="average_weight <= 3.062\ngini = 0.4073\nsamples = 295\nvalue = [84, 211]"] ;
223 -> 224 ;
225 [label="gini = 0.1723\nsamples = 63\nvalue = [6, 57]"] ;
224 -> 225 ;
226 [label="average_weight <= 3.1679\ngini = 0.4463\nsamples = 232\nvalue = [78, 154]"] ;
224 -> 226 ;
227 [label="average_weight <= 3.1425\ngini = 0.4719\nsamples = 194\nvalue = [74, 120]"] ;
226 -> 227 ;
228 [label="average_weight <= 3.1254\ngini = 0.4218\nsamples = 129\nvalue = [39, 90]"] ;
227 -> 228 ;
229 [label="average_weight <= 3.1235\ngini = 0.4614\nsamples = 108\nvalue = [39, 69]"] ;
228 -> 229 ;
230 [label="gini = 0.4209\nsamples = 93\nvalue = [28, 65]"] ;
229 -> 230 ;
231 [label="gini = 0.3911\nsamples = 15\nvalue = [11, 4]"] ;
229 -> 231 ;
232 [label="gini = 0.0\nsamples = 21\nvalue = [0, 21]"] ;
228 -> 232 ;
233 [label="gini = 0.497\nsamples = 65\nvalue = [35, 30]"] ;
227 -> 233 ;
234 [label="gini = 0.1884\nsamples = 38\nvalue = [4, 34]"] ;
226 -> 234 ;
235 [label="average_weight <= 3.5008\ngini = 0.4999\nsamples = 939\nvalue = [477, 462]"] ;
223 -> 235 ;
236 [label="average_weight <= 3.4951\ngini = 0.4882\nsamples = 572\nvalue = [330, 242]"] ;
235 -> 236 ;
237 [label="average_weight <= 3.4289\ngini = 0.4999\nsamples = 453\nvalue = [224, 229]"] ;
236 -> 237 ;
238 [label="average_weight <= 3.3301\ngini = 0.4963\nsamples = 396\nvalue = [215, 181]"] ;
237 -> 238 ;
239 [label="average_weight <= 3.2006\ngini = 0.4979\nsamples = 216\nvalue = [101, 115]"] ;
238 -> 239 ;
240 [label="gini = 0.3578\nsamples = 30\nvalue = [23, 7]"] ;
239 -> 240 ;
241 [label="average_weight <= 3.3086\ngini = 0.487\nsamples = 186\nvalue = [78, 108]"] ;
239 -> 241 ;
242 [label="average_weight <= 3.2488\ngini = 0.4946\nsamples = 174\nvalue = [78, 96]"] ;
241 -> 242 ;
243 [label="gini = 0.387\nsamples = 61\nvalue = [16, 45]"] ;
242 -> 243 ;
244 [label="average_weight <= 3.2507\ngini = 0.4953\nsamples = 113\nvalue = [62, 51]"] ;
242 -> 244 ;
245 [label="gini = 0.2726\nsamples = 43\nvalue = [36, 7]"] ;
244 -> 245 ;
246 [label="gini = 0.4669\nsamples = 70\nvalue = [26, 44]"] ;
244 -> 246 ;
247 [label="gini = 0.0\nsamples = 12\nvalue = [0, 12]"] ;
241 -> 247 ;
248 [label="average_weight <= 3.3349\ngini = 0.4644\nsamples = 180\nvalue = [114, 66]"] ;
238 -> 248 ;
249 [label="gini = 0.2098\nsamples = 84\nvalue = [74, 10]"] ;
248 -> 249 ;
250 [label="gini = 0.4861\nsamples = 96\nvalue = [40, 56]"] ;
248 -> 250 ;
251 [label="gini = 0.2659\nsamples = 57\nvalue = [9, 48]"] ;
237 -> 251 ;
252 [label="gini = 0.1946\nsamples = 119\nvalue = [106, 13]"] ;
236 -> 252 ;
253 [label="average_weight <= 3.8577\ngini = 0.4802\nsamples = 367\nvalue = [147, 220]"] ;
235 -> 253 ;
254 [label="average_weight <= 3.5998\ngini = 0.4909\nsamples = 319\nvalue = [138, 181]"] ;
253 -> 254 ;
255 [label="gini = 0.3825\nsamples = 66\nvalue = [17, 49]"] ;
254 -> 255 ;
256 [label="average_weight <= 3.6674\ngini = 0.4991\nsamples = 253\nvalue = [121, 132]"] ;
254 -> 256 ;
257 [label="average_weight <= 3.6647\ngini = 0.4844\nsamples = 102\nvalue = [60, 42]"] ;
256 -> 257 ;
258 [label="gini = 0.4813\nsamples = 62\nvalue = [25, 37]"] ;
257 -> 258 ;
259 [label="gini = 0.2188\nsamples = 40\nvalue = [35, 5]"] ;
257 -> 259 ;
260 [label="average_weight <= 3.7485\ngini = 0.4816\nsamples = 151\nvalue = [61, 90]"] ;
256 -> 260 ;
261 [label="gini = 0.3503\nsamples = 53\nvalue = [12, 41]"] ;
260 -> 261 ;
262 [label="gini = 0.5\nsamples = 98\nvalue = [49, 49]"] ;
260 -> 262 ;
263 [label="gini = 0.3047\nsamples = 48\nvalue = [9, 39]"] ;
253 -> 263 ;
264 [label="average_weight <= 4.01\ngini = 0.3158\nsamples = 458\nvalue = [368, 90]"] ;
222 -> 264 ;
265 [label="gini = 0.0585\nsamples = 232\nvalue = [225, 7]"] ;
264 -> 265 ;
266 [label="average_weight <= 4.328\ngini = 0.4648\nsamples = 226\nvalue = [143, 83]"] ;
264 -> 266 ;
267 [label="average_weight <= 4.0733\ngini = 0.4604\nsamples = 103\nvalue = [37, 66]"] ;
266 -> 267 ;
268 [label="gini = 0.2076\nsamples = 17\nvalue = [2, 15]"] ;
267 -> 268 ;
269 [label="gini = 0.4827\nsamples = 86\nvalue = [35, 51]"] ;
267 -> 269 ;
270 [label="average_weight <= 4.892\ngini = 0.2382\nsamples = 123\nvalue = [106, 17]"] ;
266 -> 270 ;
271 [label="gini = 0.3678\nsamples = 70\nvalue = [53, 17]"] ;
270 -> 271 ;
272 [label="gini = 0.0\nsamples = 53\nvalue = [53, 0]"] ;
270 -> 272 ;
}